{
  "inputs": [
        {
          "name": "energy0=Event$(cand)[0].part(0).e()*0.001",
          "offset": -1.299909432742597,
          "scale": 0.009114703901093474
        },
        {
          "name": "momentumx0=Event$(cand)[0].part(0).p4().Px()*0.001",
          "offset": -0.2753126697784888,
          "scale": 0.017104758722199492
        },
        {
          "name": "momentumy0=Event$(cand)[0].part(0).p4().Py()*0.001",
          "offset": -0.18985463935123786,
          "scale": 0.01705756276927159
        },
        {
          "name": "momentumz0=Event$(cand)[0].part(0).p4().Pz()*0.001",
          "offset": -1.6618436815703983,
          "scale": 0.006729840406106851
        },
        {
          "name": "energy1=Event$(cand)[0].part(1).e()*0.001",
          "offset": -54.46316779062251,
          "scale": 0.021365353863940492
        },
        {
          "name": "momentumx1=Event$(cand)[0].part(1).p4().Px()*0.001",
          "offset": -0.09711028619150534,
          "scale": 0.0426248107737791
        },
        {
          "name": "momentumy1=Event$(cand)[0].part(1).p4().Py()*0.001",
          "offset": 0.00848643549784995,
          "scale": 0.04246721398736285
        },
        {
          "name": "momentumz1=Event$(cand)[0].part(1).p4().Pz()*0.001",
          "offset": -0.09380052453511491,
          "scale": 0.01570958569531548
        },
        {
          "name": "momentumxMET=Event$(cand)[0].missingET().mpx()*0.001",
          "offset": -0.3580887887850789,
          "scale": 0.020434247511321182
        },
        {
          "name": "momentumyMET=Event$(cand)[0].missingET().mpy()*0.001",
          "offset": 0.2912415483711081,
          "scale": 0.020328386470548396
        }
  ],
  "layers": [
    {
      "activation": "sigmoid",
      "architecture": "dense",
      "bias": [
        -1.9516390562057495,
        -2.158285140991211,
        -1.9213823080062866,
        1.9452511072158813,
        -2.771240472793579,
        -2.318342924118042,
        2.1414828300476074,
        -1.1958746910095215,
        -2.142664670944214,
        1.8664796352386475
      ],
      "weights": [
        0.05842844769358635,
        2.0401127338409424,
        0.2603180408477783,
        -0.0920204147696495,
        0.06993593275547028,
        1.0052752494812012,
        0.09929154068231583,
        0.12169787287712097,
        -1.7247987985610962,
        0.04268777742981911,
        -0.017112653702497482,
        -0.37315991520881653,
        1.6645587682724,
        0.07953011989593506,
        0.06699973344802856,
        -0.49060338735580444,
        -0.8334919214248657,
        -0.00863511860370636,
        0.29375600814819336,
        -0.22209244966506958,
        0.029301604256033897,
        0.1804879903793335,
        -0.1455678939819336,
        0.042092178016901016,
        0.08580482006072998,
        -1.252184271812439,
        1.1520943641662598,
        -0.037282731384038925,
        0.12553617358207703,
        -0.0768938884139061,
        -0.6356019377708435,
        -0.3903045058250427,
        -0.6588468551635742,
        -0.14436812698841095,
        -0.5692723989486694,
        -0.1148344948887825,
        -0.2326989322900772,
        -0.033066000789403915,
        -0.3726078271865845,
        -0.32997003197669983,
        -0.05976048856973648,
        -0.21865764260292053,
        -1.2282096147537231,
        -0.1728745996952057,
        -0.06917162239551544,
        -0.35054638981819153,
        -0.6524303555488586,
        0.12499840557575226,
        -0.55196213722229,
        -1.991105318069458,
        0.011135172098875046,
        -0.408241331577301,
        1.0662274360656738,
        -0.03241664171218872,
        -0.10061392188072205,
        -0.4880235493183136,
        0.13434794545173645,
        0.013096467591822147,
        -0.5408928394317627,
        0.7943987846374512,
        0.036183133721351624,
        0.5249098539352417,
        2.382718324661255,
        -0.057130567729473114,
        -0.06195402517914772,
        0.12184493988752365,
        1.0992132425308228,
        0.015483439899981022,
        -0.0902341976761818,
        -1.625982403755188,
        -0.07334479689598083,
        -1.1190710067749023,
        0.11599364131689072,
        0.025029132142663002,
        -0.15430304408073425,
        -0.5908448100090027,
        0.07959054410457611,
        -0.1065872460603714,
        -0.4760081470012665,
        -0.3017750382423401,
        0.1756266951560974,
        2.282665491104126,
        -0.04083801060914993,
        0.13588346540927887,
        -0.009365652687847614,
        0.9589630961418152,
        -0.024308791384100914,
        -0.08124527335166931,
        1.9798027276992798,
        -0.05158080533146858,
        -0.06625913083553314,
        1.5463500022888184,
        -0.38522326946258545,
        0.03174019232392311,
        0.003920186311006546,
        -0.5807910561561584,
        -0.595515251159668,
        -0.031892478466033936,
        -0.25729095935821533,
        0.30855831503868103
      ]
    },
    {
      "activation": "sigmoid",
      "architecture": "dense",
      "bias": [
        0.5401843786239624,
        0.062430184334516525,
        -0.1929142028093338,
        -0.22405970096588135,
        0.09334111213684082,
        -0.209315225481987,
        -0.7501384019851685,
        0.04364928975701332,
        0.4958609640598297,
        0.27049121260643005,
        0.05521732196211815,
        -0.48420029878616333,
        -0.048214931041002274,
        0.2365778386592865,
        -0.04136248677968979,
        -0.06686412543058395,
        -0.8510335087776184,
        0.003580640535801649,
        -0.07180767506361008,
        -0.008991735987365246
      ],
      "weights": [
        -0.14411604404449463,
        -0.14476172626018524,
        0.11760172992944717,
        -0.46022382378578186,
        1.7528156042099,
        2.3556973934173584,
        -0.8551260232925415,
        0.9041146636009216,
        1.2242610454559326,
        -1.1359715461730957,
        0.20940399169921875,
        0.6354765892028809,
        0.43349167704582214,
        -0.1426296830177307,
        -0.21962884068489075,
        -0.0202941857278347,
        -0.19690324366092682,
        0.10948967933654785,
        -0.38580211997032166,
        -0.4581654369831085,
        -0.8145167827606201,
        -0.5002153515815735,
        -0.45600438117980957,
        -0.32509368658065796,
        -0.567970871925354,
        -0.28232941031455994,
        0.6617037057876587,
        0.23308943212032318,
        -0.5682557225227356,
        0.6150150299072266,
        -0.9114758968353271,
        0.4975851774215698,
        -0.32020020484924316,
        -0.17750509083271027,
        -0.8440201878547668,
        -0.9623890519142151,
        0.668921947479248,
        0.0031628222204744816,
        -0.8475334048271179,
        -0.09944573789834976,
        0.5643514394760132,
        1.3599005937576294,
        1.1906583309173584,
        0.7956628799438477,
        -0.26800572872161865,
        -0.5069121718406677,
        -0.5832657217979431,
        -0.12127574533224106,
        -0.0216556116938591,
        -1.170678973197937,
        0.4423987865447998,
        -0.020831497386097908,
        0.6865610480308533,
        -0.6092433929443359,
        0.1251334697008133,
        1.3270890712738037,
        -0.07413055747747421,
        0.4661233127117157,
        0.9314892888069153,
        -1.0469856262207031,
        -1.1012070178985596,
        -1.3491803407669067,
        -1.4547770023345947,
        -0.14609631896018982,
        -1.2074576616287231,
        -0.9499034881591797,
        1.1246647834777832,
        0.06385006755590439,
        -1.4006104469299316,
        1.280758261680603,
        -0.22977708280086517,
        0.6950315237045288,
        0.15147751569747925,
        0.2171381413936615,
        -0.6454769372940063,
        -1.105785608291626,
        -0.040584247559309006,
        0.039267439395189285,
        -0.3278796076774597,
        -0.4153795838356018,
        1.177630066871643,
        1.5650721788406372,
        1.2743648290634155,
        0.15490716695785522,
        0.8795104622840881,
        0.7417023181915283,
        -1.0123286247253418,
        -0.3955177366733551,
        0.1838732361793518,
        -1.737939715385437,
        0.7457424998283386,
        1.2665354013442993,
        0.4995768666267395,
        0.16142265498638153,
        -0.06463871151208878,
        0.00856457557529211,
        -0.9049680233001709,
        -0.5374537110328674,
        0.4669179916381836,
        -0.7275782227516174,
        0.31138190627098083,
        0.4070374071598053,
        0.040613722056150436,
        0.35861310362815857,
        0.5976988077163696,
        0.031157072633504868,
        -0.39203503727912903,
        -0.10212202370166779,
        0.3244493007659912,
        -0.6527570486068726,
        -1.3607690334320068,
        -1.9824011325836182,
        -1.9273731708526611,
        -0.8955929279327393,
        -0.5748165249824524,
        -0.16914790868759155,
        1.2451488971710205,
        0.9273593425750732,
        -0.3063827157020569,
        1.8907666206359863,
        -0.10453005135059357,
        -0.20004551112651825,
        0.27896228432655334,
        0.18326881527900696,
        -0.3929769694805145,
        -0.5225241780281067,
        0.25190675258636475,
        -0.3635008931159973,
        0.06879560649394989,
        -0.2217029631137848,
        0.05255832150578499,
        0.37251901626586914,
        0.49378708004951477,
        -0.26142045855522156,
        0.7877833843231201,
        0.7038935422897339,
        -0.7284150123596191,
        0.6200680136680603,
        0.3335241675376892,
        -0.6975927948951721,
        -0.1299443393945694,
        -0.28032204508781433,
        0.22326591610908508,
        -0.2100258469581604,
        -0.27889108657836914,
        -0.6116835474967957,
        0.23969464004039764,
        -0.14144828915596008,
        -0.1810188591480255,
        0.1444699764251709,
        0.23432403802871704,
        0.2244618982076645,
        0.2531096041202545,
        0.5570200681686401,
        0.4882602393627167,
        -0.046806517988443375,
        -0.5608711242675781,
        -0.022282613441348076,
        0.3715519309043884,
        -1.4011077880859375,
        -1.1751058101654053,
        -1.0034688711166382,
        -0.449241042137146,
        -0.39902061223983765,
        -2.4517483711242676,
        -2.0644145011901855,
        0.9153770208358765,
        -0.22778372466564178,
        -1.7117611169815063,
        1.4563522338867188,
        -0.04259553179144859,
        -0.21001820266246796,
        0.11350128799676895,
        0.6438258290290833,
        -0.650820255279541,
        -1.0988599061965942,
        -0.2422856241464615,
        -0.5180591344833374,
        -0.6112980246543884,
        0.20742285251617432,
        0.39665570855140686,
        0.27657708525657654,
        0.3550482988357544,
        -0.18890099227428436,
        0.1896127313375473,
        0.38200539350509644,
        -0.01878756657242775,
        0.208114892244339,
        -0.26491934061050415,
        -0.6662680506706238,
        -0.1752145141363144,
        -0.15624409914016724,
        0.5227921009063721,
        0.12773743271827698,
        0.37956440448760986,
        0.13953480124473572,
        -0.24495138227939606,
        0.07216944545507431,
        -0.5759281516075134,
        -0.6088380217552185
      ]
    },
    {
      "activation": "sigmoid",
      "architecture": "dense",
      "bias": [
        0.011376697570085526,
        -0.07954579591751099,
        -0.2209266573190689,
        -0.03385525941848755,
        -0.045624203979969025,
        -0.043078791350126266,
        0.004147883038967848,
        0.014369416981935501,
        -0.12821228802204132,
        0.03629496693611145,
        -0.18373775482177734,
        0.1272422820329666,
        -0.037560611963272095,
        -0.06440628319978714,
        0.04891175031661987,
        0.3836403489112854,
        -0.05431331321597099,
        -0.2758188247680664,
        -0.11919201910495758,
        -0.045160114765167236
      ],
      "weights": [
        -0.5728228688240051,
        0.36921077966690063,
        -0.16106201708316803,
        0.31575268507003784,
        0.7261548042297363,
        -0.5049574971199036,
        -0.37292611598968506,
        0.24273286759853363,
        -0.044661995023489,
        0.08462244272232056,
        -0.12420761585235596,
        -0.8997870087623596,
        0.24271897971630096,
        0.24652568995952606,
        0.361843079328537,
        0.3762372136116028,
        0.07947643101215363,
        0.38878971338272095,
        -0.1293448805809021,
        0.14782226085662842,
        -1.2213082313537598,
        0.2769431173801422,
        -0.318784236907959,
        0.4670184850692749,
        0.7276490330696106,
        -0.6280858516693115,
        0.35154294967651367,
        0.6345592737197876,
        -0.2007926106452942,
        0.12183323502540588,
        -0.07126937061548233,
        -0.36248624324798584,
        0.17271286249160767,
        -0.19815151393413544,
        0.1495324671268463,
        0.260513573884964,
        0.5261589288711548,
        0.603642463684082,
        0.046814925968647,
        -0.020319456234574318,
        -0.9250836968421936,
        0.1441677212715149,
        0.4546281397342682,
        0.4142194092273712,
        -0.25540870428085327,
        -0.6038166880607605,
        0.21309831738471985,
        0.0118476627394557,
        -0.5158004760742188,
        0.06605736166238785,
        -0.42676207423210144,
        0.30595171451568604,
        0.2004760056734085,
        -0.06396982073783875,
        -0.2669345736503601,
        0.02241460420191288,
        0.6590279340744019,
        0.4052542448043823,
        -0.020003702491521835,
        -0.35259073972702026,
        0.20356051623821259,
        0.2562199831008911,
        0.2591574490070343,
        0.2315831482410431,
        0.24908243119716644,
        0.03620350733399391,
        -0.38990166783332825,
        -0.059032097458839417,
        0.011975018307566643,
        -0.11080774664878845,
        -0.22577553987503052,
        -0.18775640428066254,
        -0.3278629779815674,
        0.08181291818618774,
        -0.05403313785791397,
        0.20282530784606934,
        -0.6372975707054138,
        -0.07798365503549576,
        0.3674030005931854,
        -0.047661762684583664,
        1.7090469598770142,
        -0.42053458094596863,
        -0.1576644778251648,
        -0.5519331693649292,
        -0.39001718163490295,
        0.7593532800674438,
        -0.4478292465209961,
        -0.7044512629508972,
        -0.23022888600826263,
        -0.7051471471786499,
        -0.32984280586242676,
        0.6596527099609375,
        -0.04483720660209656,
        0.7080005407333374,
        -0.1780950427055359,
        0.22839727997779846,
        -1.4476327896118164,
        -0.7037431001663208,
        0.39373087882995605,
        0.29276520013809204,
        -0.7628668546676636,
        0.05233665183186531,
        0.08955906331539154,
        0.14357522130012512,
        0.49139830470085144,
        -0.25568243861198425,
        0.4429778456687927,
        0.6211027503013611,
        -0.14938949048519135,
        0.3279872536659241,
        0.04421596601605415,
        -0.35463398694992065,
        0.17057092487812042,
        -0.4210686683654785,
        0.3750745952129364,
        0.29653841257095337,
        0.48040497303009033,
        0.02753189578652382,
        -0.4291621446609497,
        -0.3916909098625183,
        0.13847647607326508,
        0.20832563936710358,
        -0.320611834526062,
        0.057315029203891754,
        -0.264473021030426,
        -0.23170287907123566,
        -0.14608709514141083,
        -0.28322872519493103,
        -0.24206620454788208,
        -0.20303116738796234,
        -0.3500211536884308,
        0.09799118340015411,
        -0.2547200918197632,
        0.24016821384429932,
        0.2553708255290985,
        0.022349072620272636,
        -0.08508851379156113,
        -0.052421338856220245,
        0.023930346593260765,
        -0.04242294281721115,
        0.5396723747253418,
        0.2604388892650604,
        -0.5310591459274292,
        0.14065921306610107,
        0.815951406955719,
        0.32255733013153076,
        -1.2502623796463013,
        0.2835671901702881,
        1.283742070198059,
        0.5445818305015564,
        0.2578180432319641,
        -1.535868763923645,
        -0.20887625217437744,
        0.17981015145778656,
        -0.1524338573217392,
        0.39052167534828186,
        -0.9889911413192749,
        -0.15373530983924866,
        -0.06655704230070114,
        0.5160140991210938,
        -1.2069354057312012,
        -0.4759235680103302,
        0.4421713650226593,
        0.6338486671447754,
        -0.8635587096214294,
        -0.936565101146698,
        1.7137688398361206,
        0.015207860618829727,
        -1.7695119380950928,
        -1.1081827878952026,
        -0.6024348735809326,
        1.8473399877548218,
        -0.011489386670291424,
        -0.6372678279876709,
        0.16124875843524933,
        -0.9509129524230957,
        1.7899335622787476,
        0.09580746293067932,
        -0.30322006344795227,
        -0.2646976709365845,
        0.9033188223838806,
        0.11714442819356918,
        0.03777508810162544,
        -0.14400999248027802,
        -0.7236146330833435,
        0.284095823764801,
        -0.5439767837524414,
        -0.1707809865474701,
        0.02149643562734127,
        0.07931314408779144,
        0.3102172017097473,
        0.42582815885543823,
        -0.46991100907325745,
        0.4001689553260803,
        -0.27048027515411377,
        -0.30897361040115356,
        -0.8708670735359192,
        -0.3660428822040558,
        -0.27816346287727356,
        0.46135780215263367,
        -1.29471755027771,
        0.15774288773536682,
        0.21830247342586517,
        0.6406379342079163,
        0.4563797116279602,
        -0.8363900184631348,
        0.3404267430305481,
        0.12885519862174988,
        0.030543748289346695,
        0.22391681373119354,
        -0.08924365788698196,
        -0.20096467435359955,
        0.2703019380569458,
        -0.37992367148399353,
        0.04365621879696846,
        -0.1440935879945755,
        0.9261462092399597,
        0.5030306577682495,
        0.23706863820552826,
        -0.10937143117189407,
        -0.5279325842857361,
        -0.24515120685100555,
        -0.37025049328804016,
        0.23275165259838104,
        0.5234677195549011,
        -0.023355958983302116,
        -0.48393911123275757,
        0.6400846838951111,
        0.22949260473251343,
        0.5218415856361389,
        -0.11766135692596436,
        -0.7067809104919434,
        0.1007058173418045,
        -0.213510200381279,
        0.4478614330291748,
        0.19176222383975983,
        -0.08260472118854523,
        0.15839634835720062,
        -0.352704793214798,
        0.31752052903175354,
        0.42367517948150635,
        0.019470248371362686,
        0.2732524573802948,
        0.033662062138319016,
        0.10117170959711075,
        -0.23046845197677612,
        -0.09094187617301941,
        -0.49622711539268494,
        0.36741727590560913,
        -0.2737400531768799,
        -0.2967257499694824,
        0.40409669280052185,
        0.08135959506034851,
        0.42851099371910095,
        -0.3825589120388031,
        0.0463482104241848,
        -0.4766530692577362,
        0.21250416338443756,
        -0.2201363742351532,
        -0.2527666687965393,
        0.743878960609436,
        -0.08435757458209991,
        0.06676580756902695,
        -0.2143707126379013,
        -0.6019834876060486,
        -0.11700812727212906,
        -0.025576960295438766,
        -0.17418742179870605,
        -0.141052708029747,
        -0.2587810158729553,
        0.08879568427801132,
        0.061486002057790756,
        -0.05628584325313568,
        0.3082623779773712,
        0.31991782784461975,
        0.11943650245666504,
        0.15801919996738434,
        -0.3960961401462555,
        -0.25322574377059937,
        -0.2775445282459259,
        0.241918683052063,
        -0.058699436485767365,
        0.021560657769441605,
        -0.08390379697084427,
        -0.042717721313238144,
        -0.08546847850084305,
        0.11587792634963989,
        -0.11347045004367828,
        -0.03564738482236862,
        0.29156678915023804,
        0.3244626522064209,
        -0.15380370616912842,
        -0.29382243752479553,
        -0.28498393297195435,
        -0.3514986038208008,
        0.23887644708156586,
        -0.32291167974472046,
        -0.04070127010345459,
        -0.13668018579483032,
        0.347660094499588,
        1.521564245223999,
        0.3641255497932434,
        -0.9052417874336243,
        -0.6326478719711304,
        0.8804574012756348,
        1.1313340663909912,
        -1.9160059690475464,
        0.05941871926188469,
        2.0340559482574463,
        1.2185101509094238,
        0.693989098072052,
        -1.8134723901748657,
        0.08857185393571854,
        0.8988540768623352,
        -0.026930566877126694,
        1.0187194347381592,
        -2.325897216796875,
        -0.30982130765914917,
        0.8240717649459839,
        0.1373518407344818,
        0.009420396760106087,
        0.021509844809770584,
        0.34902873635292053,
        0.07234927266836166,
        -0.19869837164878845,
        0.24009490013122559,
        -0.26267412304878235,
        -0.23025165498256683,
        0.24775588512420654,
        -0.17535361647605896,
        -0.33787551522254944,
        0.09966042637825012,
        0.041763875633478165,
        -0.0533750057220459,
        0.2616478502750397,
        -0.22704781591892242,
        -0.25200095772743225,
        -0.3365834653377533,
        0.20694969594478607,
        0.288640558719635,
        -0.35029488801956177,
        -0.14241933822631836,
        0.6119421124458313,
        0.3044619560241699,
        -0.8157874345779419,
        -0.16849365830421448,
        1.0473026037216187,
        0.020813170820474625,
        -1.287447452545166,
        -0.16290798783302307,
        -0.3144884407520294,
        1.331486701965332,
        0.10446310043334961,
        -0.7589530944824219,
        0.4569796025753021,
        -0.43774983286857605,
        0.8930075168609619,
        -0.005946269258856773,
        -0.4924642741680145,
        -0.19350458681583405,
        -1.458401083946228,
        -0.22445444762706757,
        0.33662253618240356,
        0.7985868453979492,
        0.4290004372596741,
        -0.35029470920562744,
        -0.11621321737766266,
        0.2764052450656891,
        0.08393578976392746,
        -0.2442011535167694,
        -0.2607283592224121,
        -0.12501777708530426,
        -0.20653405785560608,
        -0.1311677098274231,
        0.1974143385887146,
        0.14592011272907257,
        0.9377143383026123,
        0.48906558752059937,
        0.18776540458202362,
        0.16137553751468658,
        0.7214599847793579,
        -0.30140170454978943,
        0.22991588711738586,
        -0.16410015523433685,
        -0.23626497387886047,
        0.30475541949272156,
        -0.44335561990737915,
        -0.3357895016670227,
        0.10331743210554123,
        -0.2330033779144287,
        -0.2436039000749588,
        0.6667246222496033,
        -0.3586963415145874,
        -0.03602137416601181,
        0.11051751673221588,
        -0.001892741653136909,
        -0.5349145531654358,
        -0.2653137445449829,
        -0.047361962497234344,
        0.20617419481277466
      ]
    },
    {
      "activation": "sigmoid",
      "architecture": "dense",
      "bias": [
        -0.10024453699588776,
        -0.09028391540050507,
        -0.15627515316009521,
        0.10874909162521362,
        0.30577027797698975,
        -0.05170736834406853,
        -0.33446893095970154,
        0.06528671830892563,
        -0.06602426618337631,
        -0.12407591193914413
      ],
      "weights": [
        -0.31023526191711426,
        -0.4969879984855652,
        -0.43253085017204285,
        -0.1421923190355301,
        0.13974276185035706,
        -0.05805123969912529,
        0.22045427560806274,
        -0.22028593719005585,
        -0.33413252234458923,
        -0.023490574210882187,
        -0.5086114406585693,
        0.18054650723934174,
        0.04932865872979164,
        -0.19170121848583221,
        -0.1439724862575531,
        0.26977255940437317,
        0.07734446227550507,
        0.192737877368927,
        0.22796912491321564,
        0.19147218763828278,
        0.0060431999154388905,
        -0.28419092297554016,
        -0.3273771405220032,
        -0.3108070194721222,
        0.39596807956695557,
        -0.2503304183483124,
        0.22281987965106964,
        -0.17997199296951294,
        -0.28868401050567627,
        -0.28306344151496887,
        0.1612166315317154,
        0.3221111297607422,
        -0.3238235414028168,
        0.06474889814853668,
        -0.4189850986003876,
        -0.18172337114810944,
        0.13420556485652924,
        -0.33512240648269653,
        -0.14077423512935638,
        0.28441065549850464,
        -0.34134015440940857,
        -0.02099130116403103,
        0.053713977336883545,
        -0.17654909193515778,
        -0.5242965221405029,
        -0.09032133221626282,
        -0.46618521213531494,
        -1.1300541162490845,
        1.552547812461853,
        -0.47648268938064575,
        -0.04896748065948486,
        -0.4283217787742615,
        0.29964181780815125,
        0.3816843628883362,
        0.2557216286659241,
        -1.7636479139328003,
        0.11061356961727142,
        1.0621010065078735,
        0.3657076954841614,
        -0.1995725780725479,
        -0.8445040583610535,
        -1.5387929677963257,
        -0.5688850283622742,
        0.08347880095243454,
        2.103506088256836,
        -0.9400618672370911,
        0.47270041704177856,
        -0.9944669008255005,
        0.9690820574760437,
        1.1597230434417725,
        -1.3610080480575562,
        -0.9696341753005981,
        0.17428907752037048,
        0.8482044339179993,
        0.0893668681383133,
        -0.9878779649734497,
        0.5384405255317688,
        0.8055095672607422,
        -1.1132327318191528,
        1.1902052164077759,
        0.2714090943336487,
        -0.16172446310520172,
        -0.7366276979446411,
        0.2534274458885193,
        0.7383422255516052,
        -0.13515393435955048,
        0.31788504123687744,
        0.6943274140357971,
        -1.4056710004806519,
        0.12266194075345993,
        -0.3947313129901886,
        0.23920698463916779,
        0.42980095744132996,
        -0.28665706515312195,
        0.47524040937423706,
        1.9324215650558472,
        0.5218146443367004,
        -0.9113943576812744,
        -0.3285156786441803,
        0.360670268535614,
        -0.9350780248641968,
        -0.8636830449104309,
        -0.2321769744157791,
        0.4008978605270386,
        1.7502409219741821,
        -0.71540367603302,
        -0.19791032373905182,
        -0.4282466769218445,
        0.6188105344772339,
        1.010198950767517,
        -1.147597074508667,
        -0.6036489605903625,
        0.5770204663276672,
        0.2512337267398834,
        -0.008944847621023655,
        -0.4014015197753906,
        0.1905134618282318,
        0.04428247734904289,
        -1.2754037380218506,
        0.5036474466323853,
        -0.3352355659008026,
        0.33458054065704346,
        0.5678470730781555,
        -0.4888390302658081,
        -1.2339346408843994,
        0.6839512586593628,
        0.1326020359992981,
        -1.6147562265396118,
        2.2304937839508057,
        -0.9100973010063171,
        0.8841968178749084,
        -0.29519832134246826,
        -0.5149933099746704,
        -0.3299676775932312,
        -0.5315589308738708,
        -3.0832903385162354,
        0.0984862744808197,
        1.3633631467819214,
        0.7235696911811829,
        -0.5459373593330383,
        0.30250808596611023,
        0.040294766426086426,
        -0.5099000930786133,
        0.3772546350955963,
        -0.306133508682251,
        -0.10285475105047226,
        -0.06629566848278046,
        0.4882621765136719,
        -0.9883567690849304,
        0.2516937255859375,
        0.23266030848026276,
        0.11288237571716309,
        -0.3500199019908905,
        0.22952888906002045,
        0.042388904839754105,
        1.090899109840393,
        0.06231895461678505,
        -0.5947076082229614,
        0.05849284678697586,
        -0.0005455727805383503,
        -0.2390211671590805,
        0.298785924911499,
        0.4783015251159668,
        0.19592629373073578,
        -0.1788405030965805,
        -0.25528937578201294,
        -0.14720627665519714,
        -0.7169239521026611,
        1.2307413816452026,
        0.2860460877418518,
        0.015569967217743397,
        -0.6150240898132324,
        -0.12221322953701019,
        -0.04430210217833519,
        -0.3045526444911957,
        -1.3952876329421997,
        -0.3418958783149719,
        0.615880012512207,
        0.042318813502788544,
        0.08334202319383621,
        0.34822794795036316,
        0.4203089475631714,
        -0.25638970732688904,
        0.2251291275024414,
        -0.2133510261774063,
        -0.3732551634311676,
        -0.3831179440021515,
        0.3865410089492798,
        -0.6402469873428345,
        -0.09101028740406036,
        0.21832141280174255,
        -0.24217841029167175,
        -0.0835500955581665,
        0.2760384976863861,
        -0.035485148429870605,
        0.43193483352661133,
        -0.1342199295759201,
        -0.3187112510204315,
        0.1217554435133934,
        -0.042342495173215866
      ]
    },
    {
      "activation": "softmax",
      "architecture": "dense",
      "bias": [
        0.027282575145363808,
        -0.02727719582617283
      ],
      "weights": [
        -0.6101658344268799,
        -0.6901215314865112,
        -1.2579833269119263,
        -2.934959888458252,
        1.4630072116851807,
        -2.3690695762634277,
        -2.528770685195923,
        1.05973482131958,
        -0.9886659383773804,
        0.7880576252937317,
        -0.128071129322052,
        -0.20455121994018555,
        1.7425719499588013,
        2.7818610668182373,
        -1.558060646057129,
        1.7126513719558716,
        2.615231990814209,
        -0.9863860011100769,
        1.2554739713668823,
        -0.06262213736772537
      ]
    }
  ],
  "nodes": [
    {
      "layer_index": 0,
      "sources": [
        5
      ],
      "type": "feed_forward"
    },
    {
      "layer_index": 1,
      "sources": [
        0
      ],
      "type": "feed_forward"
    },
    {
      "layer_index": 2,
      "sources": [
        1
      ],
      "type": "feed_forward"
    },
    {
      "layer_index": 3,
      "sources": [
        2
      ],
      "type": "feed_forward"
    },
    {
      "layer_index": 4,
      "sources": [
        3
      ],
      "type": "feed_forward"
    },
    {
      "size": 10,
      "sources": [
        0
      ],
      "type": "input"
    }
  ],
  "outputs": [
    "out_0",
    "out_1"
  ]
}
